/*This file is automatically generated from a Keras model*/

#ifdef HAVE_CONFIG_H
#include "config.h"
#endif

#include "rnn.h"

static const rnn_weight dense_1_weights[1024] = {
   -0.142935112118721, 0.23026233911514282, -0.2461944818496704, -0.0023308396339416504, 0.18377313017845154, -0.2593628466129303, -0.2255997657775879, -0.023738086223602295,
   0.14724931120872498, 0.13015878200531006, 0.15612801909446716, -0.10295739769935608, -0.190681591629982, -0.16280442476272583, -0.10495153069496155, 0.021989524364471436,
   -0.02685454487800598, -0.13518254458904266, -0.11049489676952362, 0.2589583992958069, -0.16490909457206726, 0.11547404527664185, 0.16940507292747498, 0.18186435103416443,
   -0.2523433268070221, -0.04022446274757385, -0.06791548430919647, -0.030723318457603455, -0.15883535146713257, -0.017729759216308594, 0.09127342700958252, 0.2699717879295349,
   -0.4774748682975769, 0.2879897356033325, 0.31318822503089905, 0.40986916422843933, 0.12130125612020493, 0.3258988857269287, -0.1009322926402092, -0.28503546118736267,
   -0.31453990936279297, 0.6208373308181763, 0.176981583237648, -0.6078760027885437, -0.16415472328662872, -0.3422059118747711, -0.5269242525100708, 0.0652560442686081,
   -0.14412462711334229, 0.06551732122898102, 0.3052741587162018, 0.4871278405189514, -0.3386625051498413, 0.28043097257614136, -0.1288933902978897, -0.47341588139533997,
   0.08440686017274857, 0.6365417242050171, -0.19657845795154572, -0.6003163456916809, -0.5947299599647522, -0.2967294752597809, -0.37318554520606995, 0.29564565420150757,
   0.24804116785526276, -0.10791988670825958, -0.1627708375453949, 0.11740393191576004, -0.2845875322818756, -0.04786691442131996, -0.33394286036491394, -0.3466709554195404,
   0.501992404460907, 0.36362069845199585, 0.4467911124229431, -0.037321362644433975, 0.03827086463570595, 0.08499754220247269, 0.28664523363113403, -0.16347356140613556,
   0.21892303228378296, 0.10360109806060791, -0.40765899419784546, 0.11101607978343964, -0.028345273807644844, -0.08863162249326706, 0.07785072177648544, -0.3866119682788849,
   0.16678625345230103, 0.0939403846859932, -0.02236928977072239, 0.005891750101000071, 0.08426369726657867, -0.026727788150310516, 0.3020594120025635, 0.03478609770536423,
   -0.4525607228279114, 0.22016289830207825, 0.030874183401465416, 0.07831030339002609, -0.09427827596664429, -0.3388945460319519, -0.055754922330379486, -0.30399221181869507,
   -0.027100568637251854, -0.07539523392915726, -0.6505839228630066, 0.5125449895858765, -0.08490794897079468, -0.5278170704841614, -0.009701658971607685, 0.32469311356544495,
   -0.08228474110364914, -0.06927289813756943, 0.26474863290786743, 0.09653917700052261, -0.359905481338501, 0.06422731280326843, 0.3127167820930481, -0.2888636589050293,
   -0.0024888096377253532, -0.33479294180870056, -0.7210764288902283, 0.458708792924881, 0.28211331367492676, -0.26045307517051697, 0.12716364860534668, -0.0017150425119325519,
   -0.18052546679973602, -0.2266150265932083, 0.8065935969352722, -0.6075681447982788, -0.5809953808784485, 0.6833075284957886, 1.066458821296692, -0.02205592766404152,
   0.8568160533905029, 1.2055175304412842, -0.42158961296081543, 0.12539272010326385, 0.23606961965560913, -0.6321408152580261, 0.09473710507154465, 0.6474689841270447,
   -0.25992918014526367, 0.3640285134315491, 0.012978940270841122, 0.1989060640335083, 0.16658826172351837, 0.25766366720199585, 0.1741277128458023, -0.2694772779941559,
   0.528550922870636, -0.274139404296875, -0.09577052295207977, -0.014088964089751244, 0.17324361205101013, 0.012154392898082733, 0.42813196778297424, 0.24529778957366943,
   -0.2684255838394165, 0.2952064871788025, -0.28541481494903564, 0.21185466647148132, -0.10348667204380035, 0.27358245849609375, -0.07413094490766525, 0.2125973105430603,
   0.7279766201972961, -0.29434406757354736, -0.07525862753391266, 0.08300934731960297, 0.14240804314613342, -0.06119866669178009, 0.2255839854478836, -0.20480038225650787,
   -0.1533278077840805, 0.7491930723190308, -0.6419604420661926, 0.2552631199359894, 0.8378212451934814, -0.4981253147125244, 0.17243653535842896, -0.5698122382164001,
   -0.162384033203125, -0.8388394713401794, -0.11262690275907516, 0.37063103914260864, 0.060727525502443314, 0.4076397716999054, 0.308813214302063, -0.2814735472202301,
   0.6178194284439087, 0.6106461882591248, 0.010476486757397652, 0.5643354654312134, 0.4582415819168091, -0.15258760750293732, -0.3820842206478119, -0.0838639959692955,
   0.1549544781446457, 0.2523791491985321, 0.9812737703323364, 0.290326863527298, 0.017377248033881187, 0.5486930012702942, 0.30277618765830994, -0.02106332965195179,
   0.06002755090594292, 0.26876693964004517, 0.3946487009525299, 0.06394895911216736, 0.37991225719451904, -0.15257762372493744, -0.1095258817076683, 0.19129426777362823,
   0.24297235906124115, 0.14793002605438232, 0.3743034601211548, -0.010839695110917091, -0.48058056831359863, -0.004334680736064911, -0.1591624915599823, -0.13541342318058014,
   0.0541311539709568, 0.10289634764194489, -0.045016076415777206, 0.19491147994995117, 0.16243977844715118, -0.09032947570085526, 0.10820918530225754, 0.4580739736557007,
   0.4280928075313568, 0.0893670916557312, 0.284898579120636, 0.3901176452636719, -0.33974212408065796, 0.39932137727737427, -0.27086374163627625, 0.12411559373140335,
   0.38007688522338867, -0.10542601346969604, -0.37753239274024963, -0.056948427110910416, -0.24062301218509674, 0.1678985208272934, 0.005384653806686401, 0.20433229207992554,
   0.6271561980247498, -0.033700089901685715, -0.09639604389667511, -0.4160360097885132, -0.2774234712123871, 0.14069890975952148, -0.34268057346343994, -0.8552349805831909,
   -0.11253609508275986, -0.08066520094871521, 0.3730398714542389, -0.16223418712615967, -0.12178003042936325, 0.2395671159029007, 0.6118735671043396, -0.462352991104126,
   0.23526278138160706, 0.15048694610595703, -0.48538312315940857, 0.2821340560913086, 0.4296659231185913, -0.27018478512763977, 0.1753823608160019, -0.2326916754245758,
   -0.003619865979999304, 0.03805854916572571, 0.32703253626823425, -0.3064044713973999, 0.04013749584555626, 0.1408628672361374, 0.5768411755561829, 0.14648102223873138,
   0.18829593062400818, 0.1894250363111496, -0.18100446462631226, -0.45793041586875916, 0.2893376350402832, 0.11590030044317245, -0.0991521030664444, -0.43329328298568726,
   -0.06151164323091507, -0.04902739077806473, -0.0902818962931633, -0.6038580536842346, -0.013677535578608513, 0.04825254902243614, 0.14322705566883087, -0.115911565721035,
   -0.596930205821991, -0.07893726974725723, 0.09757723659276962, 0.4133683145046234, 0.13480637967586517, 0.19905011355876923, -0.3537781238555908, -0.06861366331577301,
   -0.3511125445365906, -0.1669982224702835, 0.05986873432993889, -0.5808168053627014, -0.2649455666542053, -0.23770906031131744, 0.3032780587673187, 0.10651057213544846,
   -0.30886173248291016, 0.3326197862625122, -0.22380496561527252, -0.5380600094795227, -0.01895252987742424, 0.20562954246997833, -0.4388049244880676, 0.09852534532546997,
   0.10263446718454361, 0.16692578792572021, 0.4620204269886017, -0.4084518253803253, -0.14198708534240723, -0.34290456771850586, 0.014559182338416576, 0.2604135572910309,
   0.12763918936252594, -0.172786146402359, -0.0021628241520375013, -0.23531657457351685, -0.13781271874904633, 0.5178715586662292, -0.05789519473910332, 0.1613416224718094,
   0.07369651645421982, -0.10684008151292801, 0.1337215006351471, 0.3916704058647156, 0.16774021089076996, 0.8971360325813293, 0.4484938979148865, 0.046835385262966156,
   -0.03464110195636749, 0.2364482879638672, 0.3070623576641083, 0.20815619826316833, 0.34022796154022217, 0.19336414337158203, 0.24265360832214355, -0.17116203904151917,
   0.04204997047781944, 0.2479167878627777, 0.03550124168395996, 0.011949132196605206, 0.0035873979795724154, 0.42058390378952026, -0.18602342903614044, 0.1926976889371872,
   0.21204963326454163, -0.07333075255155563, 0.4025487005710602, -0.1708851158618927, 0.041976671665906906, 0.2816293239593506, 0.16411302983760834, 0.17987771332263947,
   0.058887362480163574, 0.3872235119342804, 0.12896564602851868, -0.06465426832437515, 0.03149854764342308, -0.7745293974876404, -0.7303717136383057, 0.1933879256248474,
   0.3668651282787323, -0.06778333336114883, 0.24252602458000183, 0.36710771918296814, -0.013099116273224354, 0.35135138034820557, 0.12479633837938309, 0.02339836023747921,
   0.3132305443286896, -0.04344907030463219, 0.3622131943702698, -0.23805059492588043, -0.21865104138851166, 0.14598877727985382, -0.35531342029571533, 0.2216840386390686,
   -0.5054800510406494, 0.004897885490208864, -0.2643928527832031, -0.029588505625724792, -0.20675869286060333, 0.19087690114974976, 0.023103272542357445, 0.41517460346221924,
   -0.03783950209617615, 0.03148399665951729, 0.016017192974686623, -0.5095651745796204, 0.10838352143764496, -0.1856706142425537, -0.18761153519153595, -0.12976986169815063,
   0.24184055626392365, -0.2314036339521408, -0.016871163621544838, 0.02400021255016327, -0.28875532746315, 0.07451266795396805, -0.17743784189224243, -0.17108826339244843,
   -0.2896762788295746, -0.045327067375183105, -0.03870844095945358, 0.029202673584222794, -0.21065033972263336, 0.24950239062309265, -0.25646936893463135, -0.11146087944507599,
   -0.49510130286216736, 0.3391674757003784, 0.12601026892662048, -0.20490334928035736, 0.3010931611061096, 0.01685091108083725, 0.3786262571811676, -0.2628174424171448,
   -0.15114949643611908, 0.11927767843008041, 0.15131108462810516, 0.013251740485429764, 0.26319319009780884, -0.18707923591136932, -0.12789180874824524, -0.3421182632446289,
   0.03752801939845085, -0.17981742322444916, 0.0003869583597406745, 0.16182488203048706, 0.5659780502319336, 0.22307276725769043, 0.1591731756925583, 0.0454336442053318,
   -0.1877269446849823, 0.38638922572135925, -0.20740829408168793, 0.20477722585201263, 0.2858547568321228, -0.023049937561154366, -0.2561612129211426, -0.19661939144134521,
   0.6356061100959778, -0.03460174426436424, -0.17682810127735138, 0.6638091802597046, -0.215729758143425, -0.1632450520992279, 0.035992447286844254, -0.018597781658172607,
   -0.5464255809783936, 0.1702425330877304, 0.1578161120414734, 0.1263822466135025, 0.15766577422618866, 0.11365406960248947, -0.17099513113498688, -0.43729516863822937,
   -0.06334573775529861, 0.20846037566661835, -0.08374883234500885, -0.07621350884437561, -0.07286310195922852, -0.20682315528392792, -0.08471120893955231, 0.02697834186255932,
   -0.04464943706989288, -0.07041069120168686, -0.02325468696653843, 0.3859843313694, 0.2669670283794403, 0.3112669587135315, 0.09566403180360794, -0.2764088213443756,
   -0.06508500874042511, 0.1795465052127838, -0.13721856474876404, -0.01592165045440197, 0.1756412386894226, -0.017680129036307335, 0.1635272353887558, 0.1522633135318756,
   -0.1376127004623413, -0.08132068067789078, 0.10025088489055634, -0.16333791613578796, -0.41634926199913025, 0.19590726494789124, 0.0640239268541336, -0.33823731541633606,
   0.012971648015081882, -0.027717895805835724, 0.12460720539093018, -0.5021420121192932, 0.12966829538345337, 0.28231576085090637, -0.06265892833471298, 0.12082583457231522,
   -0.09921076893806458, 0.10766717791557312, 0.08090291172266006, -0.2552749812602997, -0.16164588928222656, 0.41100338101387024, 0.24442659318447113, -0.29208803176879883,
   -0.2875412702560425, 0.37569454312324524, -0.055192168802022934, -0.4773149788379669, 0.2676909863948822, -0.04099294915795326, -0.077553890645504, -0.033204637467861176,
   -0.18532629311084747, -0.0023414159659296274, -0.07441363483667374, -0.24522383511066437, -0.2218213677406311, -0.16981998085975647, 0.11499235033988953, 0.01868254505097866,
   -0.003360314993187785, 0.19227446615695953, -0.33740735054016113, -0.12627074122428894, -0.1182660311460495, 0.12589016556739807, 0.17781473696231842, -0.31631457805633545,
   -0.20110900700092316, 0.1027454361319542, 0.2484743595123291, 0.09561043232679367, -0.20545099675655365, 0.2542494237422943, 0.0803552120923996, -0.22721649706363678,
   0.044848378747701645, 0.2643275558948517, -0.40620142221450806, 0.3287293612957001, 0.1357450932264328, -0.006423033773899078, 0.14265066385269165, 0.08642546832561493,
   -0.1723441183567047, 0.05810714140534401, -0.03473309427499771, -0.23612982034683228, -0.21148397028446198, -0.29293787479400635, 0.09965046495199203, 0.29934030771255493,
   -0.0006778943934477866, 0.1240793913602829, -0.10335414111614227, 0.22102805972099304, -0.5055598020553589, -0.12053029239177704, -0.02695908397436142, 0.15226615965366364,
   -0.08476507663726807, 0.2641933262348175, 0.1725282073020935, 0.3073662519454956, 0.20666228234767914, -0.4375561475753784, -0.27836093306541443, -0.2278389185667038,
   -0.12232609838247299, 0.10550893843173981, 0.01495314110070467, 0.2035520374774933, -0.40500760078430176, -0.2764129340648651, -0.2172430008649826, 0.6569166779518127,
   0.3722604215145111, -0.02066487818956375, 0.39887282252311707, 0.45664849877357483, -0.32404446601867676, 0.3460959494113922, 0.420958936214447, 0.013851329684257507,
   0.26776066422462463, 0.3143976628780365, 0.16966025531291962, 0.17695508897304535, 0.16614986956119537, 0.15289507806301117, 0.20440442860126495, 0.11798986047506332,
   0.07226277142763138, -0.12144967913627625, -0.062334172427654266, 0.17149263620376587, 0.21409857273101807, -0.47386810183525085, -0.4361630082130432, -0.16388823091983795,
   0.03493383526802063, 0.050704050809144974, 0.06499314308166504, -0.4979115128517151, 0.025111796334385872, 0.08017900586128235, -0.21278324723243713, 0.2717832922935486,
   0.12470468133687973, 0.018726300448179245, 0.07748468220233917, -0.006352849770337343, 0.2604975402355194, -0.001795632648281753, 0.28103306889533997, 0.21369366347789764,
   -0.07836990803480148, 0.2899772524833679, 0.020354459062218666, -0.061826448887586594, 0.2089153528213501, 0.16790130734443665, 0.07743176072835922, 0.2171001434326172,
   -0.0012025837786495686, 0.24440917372703552, 0.010360145941376686, -0.1925795078277588, 0.282360702753067, -0.21333453059196472, -0.06513214856386185, -0.03878073766827583,
   0.2602340877056122, 0.06941219419240952, 0.3090151846408844, -0.2299976646900177, -0.15615245699882507, 0.24912340939044952, -0.0351499505341053, 0.1290808916091919,
   -0.045209988951683044, 0.0577937476336956, -0.07493408024311066, -0.14089931547641754, 0.12398270517587662, -0.07022185623645782, -0.1496250331401825, -0.049094099551439285,
   0.6689924597740173, -0.04220842197537422, -0.21813519299030304, 0.12176761776208878, -0.16418418288230896, 0.2114042043685913, 0.2126569300889969, 0.10351260751485825,
   0.14548633992671967, 0.2574092447757721, -0.12151412665843964, 0.09323865175247192, 0.1558268964290619, -0.09542027860879898, 0.21204732358455658, -0.1589866429567337,
   0.18999676406383514, -0.29863014817237854, -0.02774302288889885, -0.30953335762023926, 0.06277604401111603, -0.07352011650800705, 0.12647907435894012, 0.24927370250225067,
   0.12482969462871552, 0.16830289363861084, -0.03505692631006241, 0.1274622529745102, -0.12044128775596619, -0.10361248254776001, 0.08825375884771347, -0.06530676782131195,
   0.20160536468029022, -0.07027431577444077, 0.03692702576518059, -0.5066081881523132, 0.024815281853079796, -0.34407469630241394, 0.2591446340084076, 0.11553402245044708,
   0.23296836018562317, 0.30741649866104126, -0.03682997450232506, -0.003859127638861537, 0.17561548948287964, 0.17609386146068573, 0.3054898679256439, -0.1042087972164154,
   0.2309345304965973, 0.15800949931144714, -0.35122111439704895, 0.18868863582611084, 0.033273160457611084, -0.07737158238887787, -0.2243274301290512, 0.08874739706516266,
   -0.1473623365163803, 0.3029876947402954, 0.24226225912570953, 0.2949441075325012, 0.2910315692424774, 0.21494506299495697, 0.09222785383462906, -0.17940182983875275,
   -0.17267926037311554, 0.05513913556933403, -0.02832850068807602, -0.21512840688228607, -0.27946218848228455, -0.32186660170555115, 0.08339975029230118, -0.21171367168426514,
   -0.08942510187625885, -0.036185599863529205, -0.36127543449401855, 0.016466163098812103, 0.18858128786087036, -0.01199307944625616, 0.05757702887058258, -0.12101692706346512,
   -0.17982792854309082, 0.20777717232704163, -0.3351205289363861, 0.12889191508293152, 0.2755654454231262, -0.47295722365379333, -0.03174634277820587, -0.1073320060968399,
   -0.3068658411502838, 0.4781554341316223, -0.3485122323036194, 0.15068602561950684, 0.3978494703769684, 0.13049346208572388, 0.12079893052577972, 0.2583221197128296,
   -0.5716308355331421, 0.15253713726997375, -0.7130128145217896, 0.35911113023757935, 0.30412980914115906, -0.8054794073104858, -0.13139289617538452, -0.19852282106876373,
   0.25505873560905457, -0.08549964427947998, 0.24467232823371887, -0.06400904804468155, -0.09732786566019058, -0.15431557595729828, -0.1899171769618988, 0.5778598189353943,
   -0.1535637378692627, -0.08573176711797714, 0.06019553542137146, 0.285322904586792, 0.05654889717698097, 0.47690820693969727, -0.1686812937259674, -0.5315715074539185,
   -0.12621808052062988, -0.15388327836990356, 0.4116358160972595, -0.20979657769203186, -0.24969615042209625, 0.02991921827197075, -0.043179214000701904, 0.1480262130498886,
   -0.09119477868080139, -0.07502450793981552, 0.2736475169658661, -0.044571056962013245, -0.16027991473674774, 0.3237346410751343, -0.41855522990226746, -0.6162974834442139,
   -0.14455921947956085, -0.18289467692375183, 0.05032743886113167, -0.5255734324455261, 0.02768782153725624, -0.18688903748989105, -0.3845440149307251, 0.4226861596107483,
   0.3143894374370575, 0.03477051481604576, 0.4496535658836365, 0.28963926434516907, 0.24065333604812622, 0.39227399230003357, -0.3481048047542572, -0.11936889588832855,
   -0.1693112850189209, -0.38682278990745544, -0.15115438401699066, -0.13786473870277405, -0.1962437629699707, -0.12528321146965027, -0.2675391435623169, 0.05846589431166649,
   -0.16598044335842133, 0.12878155708312988, -0.005102087743580341, -0.13399530947208405, 0.40252089500427246, 0.13873779773712158, -0.03391758352518082, -0.2532171607017517,
   0.05850616842508316, -0.33350425958633423, -0.13978047668933868, 0.10977806895971298, 0.04341907426714897, 0.14760756492614746, -0.19701120257377625, 0.10113126784563065,
   -0.36135202646255493, -0.2874008119106293, 0.050720956176519394, 0.20086221396923065, 0.028288578614592552, -0.09624476730823517, 0.06822383403778076, 0.10291442275047302,
   -0.24053512513637543, -0.29238784313201904, 0.03932931274175644, 0.12935839593410492, -0.06819240003824234, -0.020490270107984543, 0.1830410361289978, -0.16872943937778473,
   0.29909759759902954, 0.09567998349666595, -0.1726662814617157, 0.08556573837995529, -0.3007763922214508, -0.06321712583303452, 0.10484296083450317, 0.05013956502079964,
   0.24184830486774445, -0.46946054697036743, 0.08759840577840805, -0.07317685335874557, -0.31025955080986023, 0.23104162514209747, 0.021608412265777588, 0.3094758987426758,
   -0.12689946591854095, -0.1136796697974205, 0.40854355692863464, -0.14299458265304565, 0.12301802635192871, 0.15808823704719543, -0.10573694109916687, -0.07402103394269943,
   0.16609179973602295, -0.3330957293510437, -0.06088728830218315, -0.18514856696128845, -0.22136002779006958, 0.037082236260175705, -0.13889332115650177, 0.18673807382583618,
   0.013038324192166328, 0.06696759909391403, 0.2856316864490509, -0.3028867542743683, -0.40268993377685547, -0.15083430707454681, -0.013078410178422928, -0.04439360648393631,
   0.36708971858024597, -0.20008745789527893, -0.1664789319038391, -0.1278497874736786, -0.14582297205924988, -0.15495914220809937, -0.06540152430534363, 0.30808207392692566,
   -0.08907005190849304, -0.555124819278717, 0.021548768505454063, 0.8370911478996277, -0.3071953356266022, 0.029499761760234833, -0.09239903092384338, 0.38441038131713867,
   -0.0033174005802720785, -0.7001057863235474, -0.211877703666687, 0.13748301565647125, -0.2998141646385193, -0.008985649794340134, 0.045501768589019775, -0.005738309118896723,
   -0.1510905772447586, -0.4385124742984772, 0.027759568765759468, -0.13284802436828613, -0.42807504534721375, -0.21000762283802032, -0.09629979729652405, -0.3361642062664032,
   0.002064017578959465, -0.6156805157661438, -0.3736312687397003, 0.22659830749034882, 0.03299115598201752, -0.16575956344604492, -0.052682843059301376, 0.1579217165708542,
   -0.05259622260928154, -0.34407559037208557, -0.49158990383148193, 0.630588173866272, -0.022810960188508034, -0.17721901834011078, 0.17711906135082245, -0.046711284667253494,
   -0.07362284511327744, -0.1340833604335785, -0.30924952030181885, 0.26179641485214233, -0.13554070889949799, 0.07614115625619888, 0.7252466082572937, -0.0942615419626236,
   0.019295068457722664, -0.19368933141231537, 0.4121231436729431, 0.407815158367157, 0.356685996055603, -0.63443922996521, 0.02072863094508648, -0.045977748930454254,
   0.7272712588310242, -0.236775204539299, -0.24660761654376984, -0.19675897061824799, -0.23930658400058746, 0.2231537401676178, -0.01994418539106846, 0.7408247590065002,
   -0.06880275905132294, -0.07687239348888397, 0.5322944521903992, -0.01854935847222805, -0.06653720885515213, -0.33043232560157776, -0.20907723903656006, 0.3753818869590759,
   0.7232244610786438, -0.012158381752669811, -0.23202821612358093, 0.2948022186756134, -0.23403452336788177, -0.44046375155448914, -0.7956947088241577, 0.1168065294623375,
   -0.1860925555229187, -0.336406409740448, 0.905235230922699, -0.7954986691474915, -0.7601267099380493, -0.306532084941864, -0.09415103495121002, 0.6970775127410889,
   -0.7001875042915344, -1.6441948413848877, -0.47394949197769165, 0.9567041993141174, -0.3090873062610626, -0.7153190970420837, 0.017918365076184273, 0.6491753458976746,
   -0.9639143347740173, -1.0208370685577393, 0.08830296993255615, -1.0070511102676392, -0.6172618865966797, -0.6123538017272949, -1.1287822723388672, -0.83396977186203,
   -0.4297613203525543, -0.45590516924858093, -2.2178454399108887, -0.7482955455780029, 1.4325939416885376, -0.37836775183677673, -1.157989501953125, -1.5756198167800903,
   -0.15632572770118713, -1.1414850950241089, -0.30248764157295227, 0.9467014074325562, 0.6789764761924744, 0.764374315738678, -0.26961058378219604, 0.12390007078647614
};

static const rnn_weight dense_1_bias[16] = {
   -2.1157608032226562, 0.23988375067710876, 1.230604648590088, -1.8426913022994995, -0.8196473717689514, -0.7790977358818054, -0.22595922648906708, -1.923353910446167,
   0.46799322962760925, 2.367722511291504, -0.6693574786186218, 0.17993637919425964, -1.9871397018432617, -0.43065187335014343, -2.767918109893799, -1.135048508644104
};

extern const DenseLayer dense_1 = {
   dense_1_bias,
   dense_1_weights,
   64, 16, ACTIVATION_RELU
};

static const rnn_weight gru_1_weights[768] = {
   -0.029465392231941223, -0.17348405718803406, 0.27935555577278137, 0.10352616012096405, 0.8595561385154724, 0.13832606375217438, -0.055799394845962524, -0.05533890798687935,
   -0.023996271193027496, 0.023938914760947227, -0.038873571902513504, 0.027896417304873466, -0.38040420413017273, -0.026806561276316643, 0.14769171178340912, 0.02654690481722355,
   -0.08105717599391937, -0.056916382163763046, -0.5915946364402771, -0.26259851455688477, -0.6527765989303589, 0.510882556438446, 0.07538790255784988, -0.3825128972530365,
   -0.07119958847761154, 0.9204882979393005, 0.47307509183883667, -0.4830760657787323, -0.031206399202346802, -0.20974019169807434, -0.8157792091369629, -0.045631419867277145,
   0.015936151146888733, -0.02649136818945408, 0.12596462666988373, -0.15984098613262177, -0.7838847041130066, -0.533027172088623, -0.26658564805984497, 0.09663879126310349,
   -0.07021594792604446, 0.0463385134935379, 0.055083245038986206, 0.045056167989969254, -0.08005932718515396, -0.02607126347720623, 1.4478219747543335, 0.04629925638437271,
   0.18313105404376984, -0.14832809567451477, -0.29115983843803406, -0.17875465750694275, 0.15037328004837036, -0.24798919260501862, -0.12230688333511353, -0.04579807445406914,
   -0.17648246884346008, -0.7961027026176453, -0.14971208572387695, 0.13161548972129822, 0.2095470279455185, 1.909733772277832, 0.5909897089004517, -0.08960359543561935,
   -0.292598694562912, -0.37395262718200684, -0.7614961862564087, -2.3537352085113525, -0.7966347336769104, 0.47227299213409424, 0.16881684958934784, 0.7981337904930115,
   0.5074089765548706, -0.10180022567510605, -1.5429136753082275, 0.3691460192203522, -1.251247763633728, -2.297884464263916, -2.10945987701416, -0.21163080632686615,
   -0.019568586722016335, 0.7673097848892212, 0.049768365919589996, -0.2919636070728302, -0.23794850707054138, -0.13271456956863403, -0.35648059844970703, -0.09192658215761185,
   0.029133925214409828, -0.02995508722960949, 0.4066660702228546, -1.3835654258728027, 0.08640044927597046, -1.5421265363693237, -0.49089860916137695, -0.2215435951948166,
   -0.14917930960655212, -0.5947089791297913, 0.5197609066963196, -0.040113553404808044, 0.5422137975692749, -1.5586826801300049, -0.12407980114221573, -0.27578994631767273,
   0.26127514243125916, 0.03297848626971245, 0.11688577383756638, 1.3180220127105713, -0.25770601630210876, -0.014522412791848183, 0.8793119788169861, -0.0074215903878211975,
   -0.3170480728149414, -0.4656050205230713, -1.7419521808624268, 0.9109995365142822, -0.9908550381660461, 0.7338055372238159, -1.4517816305160522, 0.9816670417785645,
   -0.9574660062789917, 0.7767413854598999, 0.12327036261558533, -2.9055025577545166, 0.46808740496635437, -1.5633659362792969, -1.2395280599594116, 0.7671166062355042,
   -0.5972426533699036, 0.31000152230262756, -0.05708654597401619, -0.27311137318611145, 0.8848086595535278, -2.0444765090942383, -1.0282371044158936, 0.028022289276123047,
   0.10499989241361618, 2.2843682765960693, 1.1413966417312622, 0.519547164440155, -0.30349108576774597, -0.42122751474380493, -0.0013866842491552234, 0.14982150495052338,
   -0.3098756670951843, 0.06152116507291794, -1.1827737092971802, -0.03576814755797386, 0.21227583289146423, 0.06415648758411407, 1.2978744506835938, 0.31216028332710266,
   0.22970105707645416, -0.03776245191693306, -0.022241683676838875, 0.1884932518005371, -0.11316072195768356, -0.03748800605535507, 0.23238877952098846, -0.3939134478569031,
   1.2196038961410522, 0.08815668523311615, -0.009205485694110394, -0.12840484082698822, -0.03694743290543556, 0.3982031047344208, 0.9146761894226074, 0.5082290768623352,
   -0.26023977994918823, -0.25565797090530396, 0.1862148940563202, -0.5525709390640259, 1.4062820672988892, -0.2037719190120697, 0.17188769578933716, -0.2711237072944641,
   -0.09664274752140045, 0.2625269293785095, 0.010590276680886745, 0.08081308752298355, -0.5906810164451599, -0.11485642194747925, -0.7765061259269714, -0.5537752509117126,
   -0.35928618907928467, -0.051227375864982605, -0.04773901402950287, -0.20129233598709106, 0.08876395970582962, -0.1451147347688675, 0.6707945466041565, -0.5053720474243164,
   0.04910258948802948, 0.07331298291683197, -0.6175909638404846, 0.11092650890350342, 0.11299193650484085, 0.18175233900547028, 0.3663974106311798, 0.0834488496184349,
   0.08075470477342606, 0.07912755757570267, -0.3686002492904663, -0.24684901535511017, -0.11252545565366745, 0.17323367297649384, -0.021349336951971054, -0.23580025136470795,
   0.9764722585678101, 0.2534637749195099, -0.7275682687759399, 0.10230295360088348, -0.49085733294487, -0.47999051213264465, 1.9139267206192017, 0.5257214307785034,
   -0.06570252031087875, -0.005354616325348616, 0.1437990963459015, -0.32035118341445923, -0.2206680178642273, -0.05189827084541321, -0.17466837167739868, -1.6278644800186157,
   0.102467842400074, 0.42122435569763184, 0.049282465130090714, 0.1293228417634964, 0.02647639624774456, -0.16037996113300323, 0.5146004557609558, -0.2602115571498871,
   -0.15183886885643005, 0.02161598950624466, -0.020747490227222443, 0.062035057693719864, -0.07962331175804138, 0.29063960909843445, -0.029069796204566956, -0.12235284596681595,
   0.128471240401268, 0.3157392144203186, -1.0543975830078125, -0.16382935643196106, -0.6285691857337952, -0.01753165014088154, -0.3028189539909363, 0.26512113213539124,
   0.6884170174598694, -0.8374139666557312, 0.5519254803657532, 0.3598519265651703, 0.47463300824165344, 0.8463006019592285, 0.12156606465578079, 0.015399856492877007,
   0.31971991062164307, -0.7809348702430725, -0.27516573667526245, -0.439203143119812, 0.13009187579154968, -0.21494346857070923, -0.7225406169891357, 0.9757529497146606,
   -1.9666810035705566, 0.3166404962539673, -1.2486883401870728, 0.05541152134537697, 0.4436739385128021, -2.0504138469696045, -1.0593730211257935, 0.11061878502368927,
   -0.5331061482429504, -0.37262701988220215, 0.023249022662639618, 0.04771021008491516, 0.13565512001514435, -0.19974197447299957, -0.023953353986144066, 0.13669389486312866,
   0.6326534152030945, 0.012473243288695812, 1.610075831413269, -0.6699956059455872, -0.1773851215839386, -0.013506853953003883, 0.6453127264976501, 0.09477481991052628,
   0.7047310471534729, 0.22812362015247345, -0.32995331287384033, -0.1359221339225769, -0.06735257804393768, 0.04616154730319977, -0.5523099303245544, 0.10842262208461761,
   0.4460499882698059, 0.3328566551208496, -0.27142584323883057, 0.40946829319000244, 0.025966692715883255, -0.03546953201293945, 0.3079676926136017, -0.09944403171539307,
   -0.947551965713501, -1.5645734071731567, -0.20433686673641205, 0.2953762412071228, -0.035106223076581955, 0.12921415269374847, -0.8130727410316467, -1.0846143960952759,
   -2.4083220958709717, -0.11731734126806259, -1.004437804222107, 1.4132159948349, 0.7592955827713013, 0.4498758614063263, 0.3095942437648773, -0.18117690086364746,
   -0.7760217189788818, -0.18304768204689026, 0.12118452787399292, -0.07247074693441391, -0.6919616460800171, -0.08107703924179077, 0.07732949405908585, -0.46589329838752747,
   0.2868817150592804, 0.026442309841513634, -0.035562913864851, 0.32579925656318665, -0.1719718724489212, 0.16431759297847748, 0.17544104158878326, -0.4282684028148651,
   -0.33494478464126587, 0.011944858357310295, 1.6333587169647217, 0.24618686735630035, 0.9254753589630127, -0.051834020763635635, 0.19478058815002441, -0.1600634902715683,
   0.022179776802659035, 0.28660517930984497, -0.032667990773916245, 0.1821228414773941, -0.7508291006088257, -0.018807303160429, 0.6953328251838684, 0.04356681928038597,
   -0.17017804086208344, -1.3359297513961792, -0.9530057907104492, -0.0013789344811812043, -0.037130583077669144, 1.5778403282165527, -0.15973739326000214, -0.485020250082016,
   0.2957560420036316, -0.039579953998327255, 1.0764870643615723, 2.226287603378296, -0.10023174434900284, -0.45524677634239197, -0.517667293548584, 0.2832973897457123,
   0.14944811165332794, 0.10690954327583313, -0.10584758967161179, -1.4263676404953003, -1.6082158088684082, -0.257766455411911, -2.1447300910949707, 0.6386173963546753,
   -0.06680966913700104, 1.0278563499450684, 0.08124859631061554, 0.14680635929107666, -0.4087850749492645, -0.12207105755805969, 1.0077835321426392, 0.12334264069795609,
   -0.002555173123255372, 0.08084573596715927, 0.6962494254112244, -0.07569218426942825, 0.1417803317308426, 0.08785682171583176, 1.4410295486450195, -0.27139198780059814,
   0.12892885506153107, 0.07581372559070587, -0.10932385176420212, 0.016697436571121216, 0.5965558886528015, 0.1834351122379303, -0.4905342757701874, -0.06380489468574524,
   -0.504880964756012, 0.724700391292572, 1.4719696044921875, -0.6323962807655334, 0.6930640339851379, 0.4774917662143707, -1.6476413011550903, 0.07840845733880997,
   2.3379971981048584, 0.1081157922744751, -0.11799880862236023, -0.02054065465927124, -0.21544645726680756, -0.24225573241710663, -0.21167691051959991, -0.023030046373605728,
   0.43793636560440063, 0.7517252564430237, -0.1274271160364151, -0.8250179290771484, 0.5555269718170166, 0.07690300792455673, 0.5810771584510803, -0.3473457992076874,
   0.4972814917564392, 0.188849076628685, 0.12903174757957458, -1.8563696146011353, 0.03134007751941681, 0.2998042702674866, 1.9242384433746338, -0.33239462971687317,
   -0.19386620819568634, -0.014607598073780537, 1.4357936382293701, -0.6854767799377441, -0.38913220167160034, -1.0851695537567139, -0.3591157793998718, -0.06730029731988907,
   1.4440561532974243, -1.003265142440796, 0.3512098491191864, 0.19257204234600067, 0.16923294961452484, 2.346332550048828, 3.6997504234313965, 0.13441719114780426,
   1.274916648864746, -2.7185165882110596, -1.8020702600479126, -0.359291672706604, -3.340576171875, 0.06888334453105927, -0.7454884052276611, -0.4472701847553253,
   -0.8179028034210205, 3.114165782928467, 0.00017185535398311913, -1.6733722686767578, 0.3577917814254761, -1.2240360975265503, -2.7655558586120605, 0.6670941114425659,
   -0.33321622014045715, 0.13081185519695282, 0.31835752725601196, -0.008786889724433422, 0.2664097547531128, -0.9080759286880493, -1.6257147789001465, 0.13930176198482513,
   0.5552039742469788, 0.7589417099952698, 2.334904432296753, -1.0142357349395752, -0.6597945094108582, 1.311402440071106, -1.8581492900848389, 0.4004201591014862,
   0.39975640177726746, -0.062128204852342606, 0.4736340641975403, 0.2970465123653412, 0.8009406924247742, 0.3241516947746277, 0.2950974404811859, 0.057974427938461304,
   0.1231943815946579, -0.21773502230644226, 0.17285430431365967, 1.2334816455841064, -0.4468153119087219, -0.176353320479393, -0.10904478281736374, 0.03900507092475891,
   -1.289854884147644, -0.27652037143707275, -1.5762155055999756, 0.5169733166694641, -0.4587377905845642, 0.27136504650115967, -0.3319453299045563, -0.03230193629860878,
   0.09794903546571732, 0.433281809091568, 0.05413130298256874, -1.8402599096298218, 0.07935798913240433, -0.32995256781578064, -0.6201834082603455, -0.516567587852478,
   0.21388617157936096, -0.26072144508361816, -0.10924277454614639, -0.26134780049324036, -0.3991345763206482, -0.3064221143722534, 0.3196413218975067, -0.022080648690462112,
   -0.36318010091781616, -0.13073566555976868, -0.1538839489221573, -1.058796763420105, -0.18089285492897034, -0.30325227975845337, 0.8960168957710266, 0.15715409815311432,
   0.35769930481910706, -0.513706624507904, 0.10044755786657333, 0.5567077398300171, 1.1247506141662598, -0.2537105679512024, 2.381394863128662, 0.46639394760131836,
   -0.1542920023202896, -0.46848541498184204, -0.24764515459537506, 1.3942903280258179, 0.11556001007556915, -0.11844001710414886, -0.08830095082521439, 0.7329304218292236,
   -1.897029161453247, 2.524223566055298, -0.2814851403236389, -0.0978914201259613, 0.19687233865261078, 0.39979103207588196, -0.179718017578125, -1.615982174873352,
   1.3899202346801758, 0.6429101228713989, -0.5048727989196777, -0.9943046569824219, -1.2132351398468018, 1.2746813297271729, -0.017247498035430908, -0.7828090190887451,
   -0.3140037953853607, 0.058709438890218735, -0.3099918067455292, -1.0792710781097412, 0.4059639573097229, 0.09331779181957245, 0.6853820085525513, -1.256099820137024,
   -0.44150510430336, -0.1391012966632843, -0.23321394622325897, 0.29449227452278137, 0.20711363852024078, -0.4015788435935974, -0.4733906686306, -0.24356651306152344,
   0.10451992601156235, 0.07102224230766296, -0.3365330398082733, -0.0551893450319767, 1.2648365497589111, 0.3607900142669678, -0.10141958296298981, 0.17251715064048767,
   -0.1502716839313507, -0.023404398933053017, -0.1957501620054245, -0.024653317406773567, -0.33872342109680176, -0.09057968854904175, 0.1972789466381073, 0.16145658493041992,
   -0.13454344868659973, -0.5730000734329224, -1.9174890518188477, -1.5122041702270508, -2.3260929584503174, -0.029177848249673843, 0.1829695701599121, 0.015539814718067646,
   -0.16468143463134766, 1.8341710567474365, 0.23927950859069824, -0.7913938760757446, -0.8082711696624756, -1.0760219097137451, -2.25445556640625, -0.8451104760169983,
   -0.11071287095546722, 0.937470018863678, -0.02001313865184784, 0.00815100409090519, 0.07554115355014801, -0.7209303975105286, -0.2730625569820404, 0.3770008385181427,
   -0.5306020975112915, 0.6184128522872925, 0.30033078789711, 0.002996285678818822, -0.1401454210281372, 0.011477277614176273, 0.7729337215423584, 0.0628819614648819,
   0.5388665795326233, 0.05428991839289665, 1.482292890548706, 0.4790869653224945, 0.4895602762699127, -0.4250473976135254, 0.608726978302002, -0.21103328466415405,
   -0.12484459578990936, -0.6864547729492188, -0.010224668309092522, 0.6042991876602173, 0.1943778246641159, 1.1470173597335815, 0.0943053588271141, 0.20577533543109894,
   -2.7275967597961426, 0.4746636748313904, -1.290487289428711, -0.9101456999778748, -0.6130679845809937, -0.3927500247955322, -1.027610182762146, 0.533315122127533,
   0.8163885474205017, 0.9170812368392944, -1.9613882303237915, 0.07483576983213425, -0.4771367609500885, -0.7906407117843628, -2.2352633476257324, -0.831153392791748,
   -0.0738108679652214, 0.0757303461432457, 2.6343512535095215, -0.433281272649765, 0.985776960849762, -0.057883184403181076, -0.8944242596626282, -0.0350145548582077,
   -0.201566681265831, -0.0832814872264862, 0.36793264746665955, -0.31069663166999817, -0.06411594897508621, -1.0945017337799072, -0.041965365409851074, 0.15283918380737305,
   -0.028688471764326096, 0.183672696352005, -0.023287756368517876, -0.005464800167828798, 0.7337439656257629, -0.27011576294898987, -0.06523612886667252, -0.11076977103948593,
   0.014496729709208012, -0.007027467712759972, -0.11952050775289536, -0.03422871604561806, -0.12117055058479309, -0.10480792075395584, 0.11359021812677383, -0.05230481177568436,
   0.002405507955700159, -0.03401736170053482, -1.027597188949585, -0.26580676436424255, -1.4873045682907104, -0.09487327933311462, -0.018588600680232048, 0.14813384413719177,
   -0.020132102072238922, 1.2157065868377686, 0.10528065264225006, -0.25156211853027344, -0.27337366342544556, -0.6441335082054138, -1.2102388143539429, -0.09628350287675858,
   -0.013701817020773888, 0.418139785528183, 0.05847102031111717, 0.0073856874369084835, -1.0329194068908691, -0.4775291681289673, -1.4539860486984253, 0.02818167395889759,
   -0.040135182440280914, 1.2491508722305298, 0.21486589312553406, 0.07350821048021317, -0.0463113971054554, -0.011269299313426018, 0.24735566973686218, 0.012931200675666332,
   0.22712168097496033, -0.07218428701162338, -0.5959687232971191, 0.027882618829607964, 0.35080137848854065, -0.14105826616287231, -0.021351231262087822, -0.20096738636493683,
   -0.019208084791898727, 0.1481715440750122, 1.1071546077728271, 0.034988850355148315, -0.1757631152868271, 0.395376056432724, 0.1261126697063446, 0.3983931839466095,
   -0.8012970685958862, -0.13376232981681824, -0.28549161553382874, -0.22924436628818512, -0.1564766764640808, -0.5742624998092651, -0.22173276543617249, 1.1681528091430664,
   -0.2560728192329407, 0.1147552952170372, -0.12247035652399063, -0.22072379291057587, 0.30747053027153015, -0.32314425706863403, -0.2962062358856201, -0.28137847781181335,
   -0.013654426671564579, -0.20048290491104126, 0.07600467652082443, 0.20447322726249695, -0.9612285494804382, -0.022389084100723267, -0.5214686393737793, 0.1511494368314743,
   -0.08213689923286438, -0.009305031038820744, 0.42001473903656006, -0.013152091763913631, 0.08166702836751938, 0.25751712918281555, 0.2230430245399475, 0.7719970941543579
};

static const rnn_weight gru_1_recurrent_weights[768] = {
   -0.09152498841285706, -0.5416088104248047, -0.632595419883728, 0.2658172845840454, -0.04698386415839195, -0.014171061106026173, 0.14417651295661926, -0.05904777720570564,
   0.233836367726326, 0.08202283829450607, 0.33157649636268616, -0.005699573550373316, 0.20033352077007294, -0.06320587545633316, 0.2907743752002716, 0.48876214027404785,
   0.012716086581349373, -0.1496601402759552, 0.5054942965507507, -0.14374399185180664, 0.1713523119688034, -0.46880412101745605, 0.5315806269645691, -0.6399101614952087,
   -0.26862698793411255, -0.13371692597866058, 0.2760755717754364, 0.21740202605724335, -0.35738494992256165, -0.40650656819343567, -0.04061112552881241, -0.15862853825092316,
   0.9610917568206787, -0.42431744933128357, -0.1116080954670906, 0.2312234491109848, -0.12244899570941925, -0.2568280100822449, -0.7346319556236267, -0.47156429290771484,
   -0.7413199543952942, 0.5328031778335571, -0.23068343102931976, 0.37823083996772766, -0.013287119567394257, 0.40121132135391235, 0.8236693143844604, -0.6982603669166565,
   0.14066463708877563, -0.047425076365470886, 0.20149584114551544, 0.2326141893863678, 0.014743324369192123, 0.011466136202216148, 0.3469647765159607, 0.09219591319561005,
   0.12580634653568268, 0.284045547246933, 0.15776684880256653, 0.14904800057411194, 0.40766674280166626, 0.12506921589374542, 0.21852657198905945, 0.023203479126095772,
   -0.16010311245918274, -0.12736622989177704, -0.08354874700307846, 0.0649503618478775, -0.015694618225097656, -0.02281997911632061, -0.22418032586574554, -0.18241317570209503,
   0.06162305176258087, -0.35318922996520996, -0.31994521617889404, -0.21814043819904327, -0.41910824179649353, -0.21708053350448608, -0.15427078306674957, 0.1893182396888733,
   1.0008132457733154, 0.7136756181716919, -0.18585696816444397, -0.09766504913568497, -0.3486325144767761, 0.2171543389558792, -0.0716845840215683, -0.7920687794685364,
   -0.19133923947811127, -0.0633547306060791, -0.0198720321059227, -0.09930571168661118, 0.2700553238391876, -0.09923820197582245, -0.03760666400194168, -0.005857878364622593,
   0.13292410969734192, 0.14979375898838043, 0.7175272703170776, 0.37093156576156616, 0.03148479014635086, 0.0912695825099945, 0.07432165741920471, -0.06262053549289703,
   0.04547436907887459, 0.07088421285152435, 0.10435214638710022, -0.05962490662932396, 0.24466998875141144, 0.07183118164539337, 0.0655558779835701, 0.05890791490674019,
   -0.47480806708335876, 0.15571124851703644, -0.2570975124835968, -0.4971877932548523, -0.24709858000278473, -0.21875734627246857, 0.2602105438709259, 0.6186103820800781,
   -0.3474571406841278, -0.4857938587665558, -0.6243256330490112, -0.09458104521036148, -0.23374050855636597, 0.0655779242515564, -0.1298622339963913, -0.291034996509552,
   1.2764557600021362, 0.6099451780319214, 0.5986626148223877, -0.7241742610931396, -0.3090655505657196, 0.6196442246437073, 0.592647910118103, 0.10174857825040817,
   0.30058345198631287, 0.5403559803962708, 0.12909406423568726, -1.4493919610977173, 0.779983401298523, 0.13770054280757904, 0.6762149930000305, -0.6307848691940308,
   -0.20454725623130798, 0.530400276184082, -1.0251984596252441, 0.6635552644729614, 0.059846363961696625, 0.16760499775409698, 0.22227440774440765, 0.16079291701316833,
   0.6646971106529236, -0.37709787487983704, -0.5975921154022217, -0.6190769076347351, -0.04177641123533249, 0.5070318579673767, -0.12073977291584015, 0.7150905728340149,
   -0.40723440051078796, -0.3316524624824524, 0.18029919266700745, -1.1900084018707275, 0.1263875961303711, 0.22622540593147278, 1.0504413843154907, 0.06003057211637497,
   -0.1834861785173416, -0.09266210347414017, -0.3928312659263611, -0.3332977294921875, 0.6039388179779053, 0.41383203864097595, 0.5002508759498596, -0.13400575518608093,
   1.0626755952835083, -0.13065199553966522, -0.619784414768219, -0.6345197558403015, -0.46227410435676575, -0.07529503852128983, -0.023518217727541924, 0.24852792918682098,
   -0.6214873790740967, -0.9206246733665466, -0.3230784237384796, -1.011923909187317, -1.0956027507781982, 0.3646681606769562, 0.40928784012794495, -0.5475670695304871,
   -0.014747611247003078, -0.5757825970649719, 0.22814586758613586, -0.6547152996063232, 0.004057364538311958, -0.050685781985521317, -0.31727302074432373, 0.16779012978076935,
   -0.07214105129241943, -0.6025304198265076, -0.0699998065829277, 0.11807211488485336, 0.21295443177223206, -0.04927468299865723, -0.05782443284988403, -0.29685676097869873,
   -0.11244071274995804, 0.14926235377788544, -0.22527362406253815, -0.3623393177986145, 0.4120756983757019, -0.11831263452768326, -0.12954376637935638, -0.4288872182369232,
   0.20072078704833984, 0.5724406838417053, -0.42452606558799744, -0.23750758171081543, -0.024953093379735947, -0.2795267403125763, -0.10090591013431549, -0.31654712557792664,
   -1.9453787803649902, -1.420451283454895, 1.1245781183242798, -0.10367991030216217, 0.45586270093917847, -0.828234076499939, -0.5138806700706482, -0.8903839588165283,
   0.08960564434528351, 0.3487006723880768, -0.018560180440545082, 1.9714176654815674, 0.17059750854969025, -0.3388846218585968, -0.6820221543312073, -0.15365763008594513,
   -0.09463222324848175, 0.024884505197405815, -0.19250306487083435, -0.14245709776878357, -0.1751706898212433, 0.1768525093793869, -0.26144227385520935, -0.23033899068832397,
   -0.10886137932538986, -0.203273743391037, -0.13706162571907043, -0.07829774916172028, -0.08363531529903412, -0.2306993007659912, -0.3438100218772888, -0.06697740405797958,
   -0.006002163980156183, -0.2653849124908447, 0.4844026565551758, -0.34480586647987366, 0.8833225965499878, -0.07521117478609085, 0.5008866190910339, -0.5355955958366394,
   -0.21779192984104156, 0.0765085518360138, 0.506038248538971, -0.11331934481859207, 0.3408081829547882, 0.007634737063199282, -0.03216993808746338, 0.36529091000556946,
   0.29059743881225586, 0.05404410511255264, -0.38229793310165405, 1.3582894802093506, -0.5311456918716431, 0.8512246012687683, 1.4624619483947754, -0.7521889209747314,
   0.3205859661102295, -0.6558510661125183, -0.9772093296051025, -0.6194531917572021, 0.18076007068157196, 0.04577638953924179, 0.5145853757858276, -0.3485599458217621,
   -0.10329996049404144, -0.08970615267753601, -0.4661931097507477, -0.22040709853172302, 0.06369498372077942, -0.20350190997123718, -0.6080517172813416, -0.4334796071052551,
   -0.29671332240104675, -0.043120887130498886, -0.16113030910491943, -0.08419755846261978, -0.6402781009674072, -0.2448451966047287, -0.2994324862957001, 0.14668044447898865,
   -0.24002817273139954, 0.1325545459985733, -0.013893146067857742, -0.0023095235228538513, 0.17143969237804413, 0.17162545025348663, 0.4446430802345276, 0.13533683121204376,
   0.2840244770050049, 0.5000086426734924, 0.23065400123596191, -0.015359491109848022, -0.021866699680685997, 0.031838249415159225, -0.07784952968358994, -0.3957310616970062,
   -0.5201728940010071, -0.9590519070625305, 0.0666310042142868, -0.5196674466133118, -0.045249998569488525, 0.25434544682502747, 0.5335959792137146, 1.0868017673492432,
   -0.056784339249134064, -0.18223407864570618, -0.08947067707777023, -0.06235000491142273, 0.45434170961380005, -1.2878334522247314, 0.5662472248077393, 0.5306931734085083,
   -0.2993774712085724, -0.1480225771665573, 0.5186394453048706, -0.04090471938252449, -0.20005954802036285, 0.029776858165860176, -0.06594524532556534, 0.5626471638679504,
   0.17059318721294403, -0.0017602551961317658, -0.14513014256954193, 0.12547829747200012, -0.2132313847541809, 0.18260809779167175, 0.3130055069923401, -0.19340866804122925,
   0.2834615111351013, -0.049262773245573044, -0.09291279315948486, 0.4182051718235016, -0.08054368197917938, -0.29672926664352417, 0.09830550104379654, 0.49393969774246216,
   -0.152410626411438, 0.38747352361679077, 0.31779274344444275, -0.00675698509439826, -0.006813073996454477, -0.2171715497970581, 0.009613094851374626, 0.11494732648134232,
   -0.4839766025543213, -0.4672596752643585, 0.36180996894836426, -0.3688938617706299, -0.6265175342559814, -0.11743510514497757, 0.3164016008377075, -0.3661075532436371,
   0.036493394523859024, 0.09445234388113022, -0.14212892949581146, 0.8567402958869934, -0.20498964190483093, 0.17794008553028107, 0.3729085624217987, -0.28191807866096497,
   -0.05437720939517021, 0.016070611774921417, 0.23032549023628235, -0.5243505239486694, 0.04375786334276199, -0.25834164023399353, -0.26358336210250854, -0.25550931692123413,
   -0.23749396204948425, -0.009578361175954342, 0.1815771460533142, -0.060564909130334854, -0.10300962626934052, -0.04575330764055252, 0.022541457787156105, -0.0863574668765068,
   -0.23803964257240295, 0.3280368149280548, 0.024027906358242035, -0.39588403701782227, 0.6437195539474487, 1.0294592380523682, -0.09173483401536942, -0.3266695439815521,
   -0.13346730172634125, 0.7025644183158875, 0.7433007955551147, 1.0751010179519653, 0.8289737701416016, 0.07233311235904694, 0.6248570084571838, 0.5339299440383911,
   -0.9291455745697021, -0.8434548377990723, 1.0771507024765015, -0.7995316982269287, -0.6041659712791443, -0.13386714458465576, 0.08246982842683792, 0.17314976453781128,
   0.0056247469037771225, -0.5613718628883362, -0.5536606311798096, -0.18380749225616455, -0.7772242426872253, 0.23564904928207397, -1.0351520776748657, -0.23179972171783447,
   0.05125373974442482, 0.05605548992753029, -0.037203092128038406, 0.34639227390289307, -0.04651765152812004, 0.12948811054229736, 0.06589885801076889, -0.08305678516626358,
   0.07508116215467453, 0.1254020482301712, -0.01639377512037754, 0.15851549804210663, 0.32053321599960327, 0.34125104546546936, 0.25827866792678833, 0.14705392718315125,
   -0.029082568362355232, 0.20898346602916718, -0.3502398133277893, -0.7656682133674622, -0.6132791638374329, -0.32228416204452515, -0.3680318593978882, -0.3259125351905823,
   0.02650868333876133, -0.6048575043678284, -1.2069143056869507, -0.054279401898384094, -0.04777443781495094, 0.6701919436454773, -0.3897709548473358, -0.573340654373169,
   -0.2680455446243286, -0.23827604949474335, 0.08478288352489471, -0.024062421172857285, -0.045853141695261, -1.4744246006011963, -1.5049067735671997, -0.254118412733078,
   -0.4052431881427765, 0.5131298899650574, 1.187880039215088, -0.10850251466035843, -0.5846641659736633, 0.10330167412757874, -0.49367740750312805, 0.04854434356093407,
   0.09242662042379379, 0.18651515245437622, -0.32679057121276855, 0.07849983125925064, -0.26637887954711914, -0.40347009897232056, 0.38705208897590637, 0.0557396337389946,
   -0.28435173630714417, 0.24155975878238678, 0.7993776798248291, 0.03541327640414238, 0.4983406364917755, 0.49954015016555786, 0.5517178773880005, 0.14902597665786743,
   -0.007587202358990908, 0.232042133808136, -0.6904869079589844, -0.44828125834465027, -0.5903486013412476, -0.41230374574661255, -0.31323137879371643, 0.20681153237819672,
   -0.1028178483247757, -0.19576026499271393, -0.4241940379142761, 0.33565765619277954, -0.4871837794780731, -0.2569330930709839, -0.4525691568851471, -0.4541126489639282,
   0.05819817632436752, 0.9152090549468994, 0.8367113471031189, -0.6568560004234314, -0.3150881230831146, -0.271976500749588, -0.22592006623744965, 1.4335836172103882,
   -0.2039579451084137, 0.6975553631782532, 0.8667474985122681, 0.9018042087554932, 0.36763420701026917, -0.07619087398052216, 0.11217502504587173, 0.18531185388565063,
   -0.18381409347057343, -0.058347415179014206, 0.9282337427139282, -0.4797644317150116, -0.19235071539878845, -0.015020827762782574, 0.20576700568199158, 0.06106562167406082,
   -0.05478539317846298, 0.04389511048793793, -0.238829106092453, -0.230724036693573, 0.20183409750461578, 0.23440471291542053, 0.15103751420974731, -0.21454763412475586,
   0.43535974621772766, -0.1221574991941452, 0.024660954251885414, 0.389693945646286, 0.11924895644187927, 0.040893975645303726, -0.010731939226388931, 0.6063238382339478,
   0.17709623277187347, 0.8987328410148621, -0.3354870080947876, 0.27060145139694214, -0.31257447600364685, -0.08980318158864975, 0.03151368349790573, -0.5483738780021667,
   0.5164073705673218, -0.17000612616539001, -0.3564251959323883, -0.20834095776081085, 1.191817283630371, -0.7983733415603638, -0.4956338405609131, 0.6365794539451599,
   -0.3757888972759247, -0.37819379568099976, -0.49484875798225403, 0.6603380441665649, 0.5608537197113037, 0.3348222076892853, 0.010938123799860477, 0.790099561214447,
   -0.11914888769388199, 0.10816547274589539, 0.1440371572971344, 0.19998273253440857, 1.0889618396759033, 0.3388727009296417, -0.019693648442626, 0.03338658809661865,
   0.34746479988098145, -0.20785564184188843, -0.00445910869166255, 0.027308663353323936, -1.8537355661392212, -0.09010054171085358, -0.6580450534820557, 0.5125366449356079,
   -0.0034148599952459335, 0.5639378428459167, -0.46988409757614136, -0.6260128617286682, -0.24877318739891052, 1.5504493713378906, 0.2699068486690521, -0.35641753673553467,
   0.2224864512681961, 0.04692194610834122, 0.9884238243103027, -0.9606269001960754, 0.3546994924545288, -0.051239196211099625, -0.5585299730300903, 0.2054692655801773,
   0.9728923439979553, 0.9994025230407715, -0.5567432641983032, -0.38033920526504517, 0.31848034262657166, -0.2639165222644806, 0.0668753981590271, 0.5117141008377075,
   -1.0864551067352295, -0.3111092150211334, -0.24874430894851685, -0.0710749477148056, -0.20763438940048218, -0.137137308716774, 0.8055854439735413, 0.528943657875061,
   -0.09234871715307236, 0.09458127617835999, -0.2553057372570038, 0.5278425216674805, 0.10294866561889648, 0.22959375381469727, 0.17261351644992828, 0.06545339524745941,
   0.3501765727996826, 0.4976736605167389, -0.16659769415855408, -0.024019954726099968, 0.1021091639995575, 0.4792081415653229, 0.16292311251163483, 0.6099094152450562,
   0.2022244930267334, -0.10833285003900528, 0.2600325345993042, 0.07126154750585556, 0.1901211142539978, -0.06853944808244705, 0.3542879819869995, -0.3905302584171295,
   -0.4397484064102173, -0.21610333025455475, -0.10725222527980804, -0.5939544439315796, 0.720124363899231, -0.4272627532482147, 0.11165215075016022, 1.5004936456680298,
   0.5989828705787659, -0.05627093091607094, 0.6100962162017822, 0.05580754205584526, -0.4652392268180847, 0.5602789521217346, 0.05630116164684296, -0.048715345561504364,
   -1.1566505432128906, 0.17552654445171356, -0.4583088159561157, -1.1764500141143799, -0.13982047140598297, 1.047606348991394, 0.11739419400691986, 0.3566333055496216,
   -0.14552710950374603, -0.4455214738845825, -0.4455169439315796, 0.2675997018814087, -0.10382534563541412, -0.05902407690882683, -0.22669604420661926, -0.1988803595304489,
   -0.026811514049768448, 0.32813435792922974, 0.17167718708515167, 0.1994573026895523, -0.48720821738243103, -0.14785884320735931, 0.06458835303783417, -0.05078290030360222,
   -0.10182446986436844, -0.1831970065832138, 0.4553508162498474, 0.39741480350494385, 0.4657512903213501, -0.271117627620697, -0.02633756212890148, 0.44337335228919983,
   -0.3224221467971802, -0.3920835256576538, -0.3691648244857788, -0.3626975119113922, 0.6549104452133179, -0.03592979162931442, -0.43889370560646057, 0.2338108867406845,
   1.299918532371521, 1.2806134223937988, -0.2417866587638855, -0.11313273757696152, -0.8392189145088196, 0.8688748478889465, 0.6549590826034546, 0.5500422120094299,
   0.05440378934144974, 0.12192271649837494, -0.6626281142234802, -2.6647677421569824, 0.48761627078056335, 0.16297687590122223, 1.1023550033569336, -0.4078267216682434,
   0.28600597381591797, 0.005789168644696474, 0.5821330547332764, 0.04440341144800186, -0.04430246725678444, -0.1176692396402359, 0.15826855599880219, 0.22487103939056396,
   -0.22555513679981232, 0.02081930823624134, 0.2107010781764984, 0.0641145259141922, -0.37730661034584045, 0.033636294305324554, -0.05712011456489563, -0.5574091672897339,
   0.6325215697288513, 0.121970996260643, 0.31061461567878723, 0.19962453842163086, 0.23352794349193573, -0.9254788160324097, -0.03997686877846718, 0.8233816623687744,
   0.6404935121536255, 0.3739204406738281, -0.6291847229003906, 0.028759684413671494, -0.12927259504795074, -0.22521506249904633, -0.05057238042354584, 0.24216537177562714,
   -0.6052781939506531, 0.31722986698150635, -0.7428101301193237, -0.7123388051986694, 0.6770481467247009, 0.014434393495321274, 0.14233700931072235, -0.05580780282616615,
   0.668594479560852, -0.4561239182949066, 0.32467934489250183, -0.052118655294179916, 0.222333624958992, -0.4897374212741852, 0.5658658742904663, 0.21916362643241882
};

static const rnn_weight gru_1_bias[48] = {
   0.7582253813743591, 0.5549806952476501, -0.3890911340713501, 0.2872338593006134, 0.1288403868675232, 1.0840351581573486, 0.541702151298523, 0.5774926543235779,
   0.8396925926208496, 0.8355981111526489, 1.2262459993362427, 0.1344749927520752, 1.6737635135650635, 0.7679275870323181, 0.5026302337646484, 0.38154178857803345,
   -0.3699202537536621, -0.36157912015914917, -0.15432120859622955, 0.31038856506347656, -0.0048677665181458, -1.3204495906829834, -0.23366402089595795, 0.12830954790115356,
   -0.5678353309631348, -1.0680583715438843, -1.4818134307861328, -0.3649253249168396, -0.07257792353630066, 0.16463403403759003, -0.06594548374414444, -0.0864052101969719,
   0.5070005655288696, 1.2058156728744507, 1.059078574180603, 0.6224157214164734, -1.901949405670166, 0.08495233207941055, -0.8640469908714294, -0.4482382535934448,
   -0.012189459055662155, 0.6886554956436157, 0.00867277942597866, 0.009748456999659538, 0.4638226628303528, 0.9892736673355103, 0.6060218214988708, 0.3542136251926422
};

extern const GRULayer gru_1 = {
   gru_1_bias,
   gru_1_weights,
   gru_1_recurrent_weights,
   16, 16, ACTIVATION_TANH
};

static const rnn_weight dense_2_weights[80] = {
   -1.9370079040527344, 1.8046958446502686, -2.4526865482330322, 0.33831143379211426, 1.0889307260513306, -1.7427018880844116, -0.28190919756889343, 0.8903639316558838,
   1.3650383949279785, -0.176397442817688, 1.8551009893417358, 0.5539460778236389, -2.824831008911133, -1.0234178304672241, -0.6785355806350708, 1.5767927169799805,
   -0.41649189591407776, -2.503725528717041, -0.3010149896144867, 0.39518144726753235, -0.23309333622455597, 0.7835162878036499, 0.6166614890098572, 2.0033154487609863,
   -2.4700570106506348, 0.03849222883582115, 0.0801859050989151, -0.44682133197784424, -1.5976182222366333, 3.0680878162384033, -1.4034191370010376, 2.2439191341400146,
   -2.533515453338623, 2.043461799621582, 0.21428510546684265, 0.8559256196022034, 1.1792353391647339, 1.001307725906372, -1.319356083869934, -0.0038774991407990456,
   0.2601255476474762, -0.9224960207939148, 3.7435624599456787, -1.8596367835998535, 2.122863531112671, 0.9920535683631897, -2.5553035736083984, -0.548032820224762,
   0.6217490434646606, -1.286304235458374, 0.923374593257904, 0.6889750957489014, -3.291790723800659, 1.088074803352356, -2.798286199569702, -1.0900657176971436,
   4.979641437530518, 0.5374665856361389, -0.8378832936286926, -1.2859359979629517, -0.9487648606300354, -0.3342081904411316, 0.36881589889526367, 1.0004284381866455,
   -0.43143391609191895, -1.0439664125442505, 2.3169212341308594, 1.7824780941009521, -1.8279945850372314, 1.0282161235809326, -2.3171093463897705, -3.786742925643921,
   -4.601513862609863, 0.35834169387817383, 1.8757977485656738, -0.8614566922187805, -0.22264985740184784, 2.3260388374328613, 0.7564888000488281, -0.40524429082870483
};

static const rnn_weight dense_2_bias[5] = {
   0.1451498121023178, -0.8107247352600098, -0.15291498601436615, 0.8901060819625854, -0.8470091819763184
};

extern const DenseLayer dense_2 = {
   dense_2_bias,
   dense_2_weights,
   16, 5, ACTIVATION_SOFTMAX
};

